digraph Tree {
node [shape=box] ;
0 [label="duration <= 561.0\ngini = 0.206\nsamples = 3164\nvalue = [2795, 369]"] ;
1 [label="poutcome_success <= 0.5\ngini = 0.142\nsamples = 2825\nvalue = [2607, 218]"] ;
0 -> 1 [labeldistance=2.5, labelangle=45, headlabel="True"] ;
2 [label="duration <= 222.5\ngini = 0.114\nsamples = 2746\nvalue = [2579, 167]"] ;
1 -> 2 ;
3 [label="age <= 60.5\ngini = 0.052\nsamples = 1839\nvalue = [1790, 49]"] ;
2 -> 3 ;
4 [label="age <= 20.0\ngini = 0.043\nsamples = 1794\nvalue = [1755, 39]"] ;
3 -> 4 ;
5 [label="campaign <= 2.5\ngini = 0.444\nsamples = 3\nvalue = [1, 2]"] ;
4 -> 5 ;
6 [label="gini = 0.0\nsamples = 2\nvalue = [0, 2]"] ;
5 -> 6 ;
7 [label="gini = 0.0\nsamples = 1\nvalue = [1, 0]"] ;
5 -> 7 ;
8 [label="month <= 4.5\ngini = 0.04\nsamples = 1791\nvalue = [1754, 37]"] ;
4 -> 8 ;
9 [label="balance <= 1972.5\ngini = 0.125\nsamples = 253\nvalue = [236, 17]"] ;
8 -> 9 ;
10 [label="balance <= 16.5\ngini = 0.082\nsamples = 211\nvalue = [202, 9]"] ;
9 -> 10 ;
11 [label="balance <= 7.0\ngini = 0.26\nsamples = 39\nvalue = [33, 6]"] ;
10 -> 11 ;
12 [label="duration <= 145.5\ngini = 0.161\nsamples = 34\nvalue = [31, 3]"] ;
11 -> 12 ;
13 [label="gini = 0.0\nsamples = 28\nvalue = [28, 0]"] ;
12 -> 13 ;
14 [label="duration <= 165.0\ngini = 0.5\nsamples = 6\nvalue = [3, 3]"] ;
12 -> 14 ;
15 [label="gini = 0.0\nsamples = 3\nvalue = [0, 3]"] ;
14 -> 15 ;
16 [label="gini = 0.0\nsamples = 3\nvalue = [3, 0]"] ;
14 -> 16 ;
17 [label="month <= 2.5\ngini = 0.48\nsamples = 5\nvalue = [2, 3]"] ;
11 -> 17 ;
18 [label="gini = 0.0\nsamples = 2\nvalue = [2, 0]"] ;
17 -> 18 ;
19 [label="gini = 0.0\nsamples = 3\nvalue = [0, 3]"] ;
17 -> 19 ;
20 [label="duration <= 219.5\ngini = 0.034\nsamples = 172\nvalue = [169, 3]"] ;
10 -> 20 ;
21 [label="job_management <= 0.5\ngini = 0.023\nsamples = 169\nvalue = [167, 2]"] ;
20 -> 21 ;
22 [label="gini = 0.0\nsamples = 128\nvalue = [128, 0]"] ;
21 -> 22 ;
23 [label="duration <= 186.5\ngini = 0.093\nsamples = 41\nvalue = [39, 2]"] ;
21 -> 23 ;
24 [label="age <= 34.5\ngini = 0.053\nsamples = 37\nvalue = [36, 1]"] ;
23 -> 24 ;
25 [label="age <= 33.5\ngini = 0.133\nsamples = 14\nvalue = [13, 1]"] ;
24 -> 25 ;
26 [label="gini = 0.0\nsamples = 12\nvalue = [12, 0]"] ;
25 -> 26 ;
27 [label="housing_no <= 0.5\ngini = 0.5\nsamples = 2\nvalue = [1, 1]"] ;
25 -> 27 ;
28 [label="gini = 0.0\nsamples = 1\nvalue = [1, 0]"] ;
27 -> 28 ;
29 [label="gini = 0.0\nsamples = 1\nvalue = [0, 1]"] ;
27 -> 29 ;
30 [label="gini = 0.0\nsamples = 23\nvalue = [23, 0]"] ;
24 -> 30 ;
31 [label="month <= 2.5\ngini = 0.375\nsamples = 4\nvalue = [3, 1]"] ;
23 -> 31 ;
32 [label="gini = 0.0\nsamples = 3\nvalue = [3, 0]"] ;
31 -> 32 ;
33 [label="gini = 0.0\nsamples = 1\nvalue = [0, 1]"] ;
31 -> 33 ;
34 [label="job_technician <= 0.5\ngini = 0.444\nsamples = 3\nvalue = [2, 1]"] ;
20 -> 34 ;
35 [label="gini = 0.0\nsamples = 2\nvalue = [2, 0]"] ;
34 -> 35 ;
36 [label="gini = 0.0\nsamples = 1\nvalue = [0, 1]"] ;
34 -> 36 ;
37 [label="marital_divorced <= 0.5\ngini = 0.308\nsamples = 42\nvalue = [34, 8]"] ;
9 -> 37 ;
38 [label="balance <= 1988.5\ngini = 0.26\nsamples = 39\nvalue = [33, 6]"] ;
37 -> 38 ;
39 [label="gini = 0.0\nsamples = 1\nvalue = [0, 1]"] ;
38 -> 39 ;
40 [label="age <= 37.5\ngini = 0.229\nsamples = 38\nvalue = [33, 5]"] ;
38 -> 40 ;
41 [label="age <= 36.5\ngini = 0.351\nsamples = 22\nvalue = [17, 5]"] ;
40 -> 41 ;
42 [label="duration <= 205.5\ngini = 0.255\nsamples = 20\nvalue = [17, 3]"] ;
41 -> 42 ;
43 [label="balance <= 2750.5\ngini = 0.188\nsamples = 19\nvalue = [17, 2]"] ;
42 -> 43 ;
44 [label="housing_yes <= 0.5\ngini = 0.5\nsamples = 4\nvalue = [2, 2]"] ;
43 -> 44 ;
45 [label="gini = 0.0\nsamples = 2\nvalue = [0, 2]"] ;
44 -> 45 ;
46 [label="gini = 0.0\nsamples = 2\nvalue = [2, 0]"] ;
44 -> 46 ;
47 [label="gini = 0.0\nsamples = 15\nvalue = [15, 0]"] ;
43 -> 47 ;
48 [label="gini = 0.0\nsamples = 1\nvalue = [0, 1]"] ;
42 -> 48 ;
49 [label="gini = 0.0\nsamples = 2\nvalue = [0, 2]"] ;
41 -> 49 ;
50 [label="gini = 0.0\nsamples = 16\nvalue = [16, 0]"] ;
40 -> 50 ;
51 [label="poutcome_unknown <= 0.5\ngini = 0.444\nsamples = 3\nvalue = [1, 2]"] ;
37 -> 51 ;
52 [label="gini = 0.0\nsamples = 1\nvalue = [1, 0]"] ;
51 -> 52 ;
53 [label="gini = 0.0\nsamples = 2\nvalue = [0, 2]"] ;
51 -> 53 ;
54 [label="month <= 8.5\ngini = 0.026\nsamples = 1538\nvalue = [1518, 20]"] ;
8 -> 54 ;
55 [label="pdays <= 424.5\ngini = 0.013\nsamples = 1340\nvalue = [1331, 9]"] ;
54 -> 55 ;
56 [label="job_student <= 0.5\ngini = 0.012\nsamples = 1339\nvalue = [1331, 8]"] ;
55 -> 56 ;
57 [label="day <= 5.5\ngini = 0.011\nsamples = 1323\nvalue = [1316, 7]"] ;
56 -> 57 ;
58 [label="pdays <= 92.5\ngini = 0.042\nsamples = 140\nvalue = [137, 3]"] ;
57 -> 58 ;
59 [label="age <= 31.5\ngini = 0.029\nsamples = 134\nvalue = [132, 2]"] ;
58 -> 59 ;
60 [label="day <= 4.5\ngini = 0.124\nsamples = 30\nvalue = [28, 2]"] ;
59 -> 60 ;
61 [label="gini = 0.0\nsamples = 25\nvalue = [25, 0]"] ;
60 -> 61 ;
62 [label="housing_no <= 0.5\ngini = 0.48\nsamples = 5\nvalue = [3, 2]"] ;
60 -> 62 ;
63 [label="gini = 0.0\nsamples = 3\nvalue = [3, 0]"] ;
62 -> 63 ;
64 [label="gini = 0.0\nsamples = 2\nvalue = [0, 2]"] ;
62 -> 64 ;
65 [label="gini = 0.0\nsamples = 104\nvalue = [104, 0]"] ;
59 -> 65 ;
66 [label="age <= 50.0\ngini = 0.278\nsamples = 6\nvalue = [5, 1]"] ;
58 -> 66 ;
67 [label="gini = 0.0\nsamples = 5\nvalue = [5, 0]"] ;
66 -> 67 ;
68 [label="gini = 0.0\nsamples = 1\nvalue = [0, 1]"] ;
66 -> 68 ;
69 [label="balance <= 197.5\ngini = 0.007\nsamples = 1183\nvalue = [1179, 4]"] ;
57 -> 69 ;
70 [label="balance <= 195.5\ngini = 0.016\nsamples = 483\nvalue = [479, 4]"] ;
69 -> 70 ;
71 [label="balance <= 150.5\ngini = 0.012\nsamples = 482\nvalue = [479, 3]"] ;
70 -> 71 ;
72 [label="gini = 0.0\nsamples = 438\nvalue = [438, 0]"] ;
71 -> 72 ;
73 [label="balance <= 152.5\ngini = 0.127\nsamples = 44\nvalue = [41, 3]"] ;
71 -> 73 ;
74 [label="gini = 0.0\nsamples = 2\nvalue = [0, 2]"] ;
73 -> 74 ;
75 [label="marital_divorced <= 0.5\ngini = 0.046\nsamples = 42\nvalue = [41, 1]"] ;
73 -> 75 ;
76 [label="gini = 0.0\nsamples = 40\nvalue = [40, 0]"] ;
75 -> 76 ;
77 [label="month <= 5.5\ngini = 0.5\nsamples = 2\nvalue = [1, 1]"] ;
75 -> 77 ;
78 [label="gini = 0.0\nsamples = 1\nvalue = [1, 0]"] ;
77 -> 78 ;
79 [label="gini = 0.0\nsamples = 1\nvalue = [0, 1]"] ;
77 -> 79 ;
80 [label="gini = 0.0\nsamples = 1\nvalue = [0, 1]"] ;
70 -> 80 ;
81 [label="gini = 0.0\nsamples = 700\nvalue = [700, 0]"] ;
69 -> 81 ;
82 [label="day <= 25.5\ngini = 0.117\nsamples = 16\nvalue = [15, 1]"] ;
56 -> 82 ;
83 [label="gini = 0.0\nsamples = 14\nvalue = [14, 0]"] ;
82 -> 83 ;
84 [label="marital_single <= 0.5\ngini = 0.5\nsamples = 2\nvalue = [1, 1]"] ;
82 -> 84 ;
85 [label="gini = 0.0\nsamples = 1\nvalue = [1, 0]"] ;
84 -> 85 ;
86 [label="gini = 0.0\nsamples = 1\nvalue = [0, 1]"] ;
84 -> 86 ;
87 [label="gini = 0.0\nsamples = 1\nvalue = [0, 1]"] ;
55 -> 87 ;
88 [label="day <= 14.5\ngini = 0.105\nsamples = 198\nvalue = [187, 11]"] ;
54 -> 88 ;
89 [label="day <= 8.5\ngini = 0.355\nsamples = 26\nvalue = [20, 6]"] ;
88 -> 89 ;
90 [label="gini = 0.0\nsamples = 13\nvalue = [13, 0]"] ;
89 -> 90 ;
91 [label="balance <= 1106.5\ngini = 0.497\nsamples = 13\nvalue = [7, 6]"] ;
89 -> 91 ;
92 [label="duration <= 102.0\ngini = 0.278\nsamples = 6\nvalue = [5, 1]"] ;
91 -> 92 ;
93 [label="gini = 0.0\nsamples = 1\nvalue = [0, 1]"] ;
92 -> 93 ;
94 [label="gini = 0.0\nsamples = 5\nvalue = [5, 0]"] ;
92 -> 94 ;
95 [label="day <= 13.0\ngini = 0.408\nsamples = 7\nvalue = [2, 5]"] ;
91 -> 95 ;
96 [label="gini = 0.0\nsamples = 4\nvalue = [0, 4]"] ;
95 -> 96 ;
97 [label="housing_no <= 0.5\ngini = 0.444\nsamples = 3\nvalue = [2, 1]"] ;
95 -> 97 ;
98 [label="gini = 0.0\nsamples = 1\nvalue = [0, 1]"] ;
97 -> 98 ;
99 [label="gini = 0.0\nsamples = 2\nvalue = [2, 0]"] ;
97 -> 99 ;
100 [label="month <= 10.5\ngini = 0.056\nsamples = 172\nvalue = [167, 5]"] ;
88 -> 100 ;
101 [label="duration <= 146.0\ngini = 0.375\nsamples = 20\nvalue = [15, 5]"] ;
100 -> 101 ;
102 [label="day <= 27.5\ngini = 0.133\nsamples = 14\nvalue = [13, 1]"] ;
101 -> 102 ;
103 [label="gini = 0.0\nsamples = 12\nvalue = [12, 0]"] ;
102 -> 103 ;
104 [label="day <= 28.5\ngini = 0.5\nsamples = 2\nvalue = [1, 1]"] ;
102 -> 104 ;
105 [label="gini = 0.0\nsamples = 1\nvalue = [0, 1]"] ;
104 -> 105 ;
106 [label="gini = 0.0\nsamples = 1\nvalue = [1, 0]"] ;
104 -> 106 ;
107 [label="housing_yes <= 0.5\ngini = 0.444\nsamples = 6\nvalue = [2, 4]"] ;
101 -> 107 ;
108 [label="day <= 24.5\ngini = 0.444\nsamples = 3\nvalue = [2, 1]"] ;
107 -> 108 ;
109 [label="gini = 0.0\nsamples = 1\nvalue = [0, 1]"] ;
108 -> 109 ;
110 [label="gini = 0.0\nsamples = 2\nvalue = [2, 0]"] ;
108 -> 110 ;
111 [label="gini = 0.0\nsamples = 3\nvalue = [0, 3]"] ;
107 -> 111 ;
112 [label="gini = 0.0\nsamples = 152\nvalue = [152, 0]"] ;
100 -> 112 ;
113 [label="marital_divorced <= 0.5\ngini = 0.346\nsamples = 45\nvalue = [35, 10]"] ;
3 -> 113 ;
114 [label="duration <= 210.0\ngini = 0.289\nsamples = 40\nvalue = [33, 7]"] ;
113 -> 114 ;
115 [label="age <= 86.5\ngini = 0.198\nsamples = 36\nvalue = [32, 4]"] ;
114 -> 115 ;
116 [label="month <= 3.5\ngini = 0.157\nsamples = 35\nvalue = [32, 3]"] ;
115 -> 116 ;
117 [label="balance <= 966.0\ngini = 0.375\nsamples = 12\nvalue = [9, 3]"] ;
116 -> 117 ;
118 [label="gini = 0.0\nsamples = 6\nvalue = [6, 0]"] ;
117 -> 118 ;
119 [label="contact_telephone <= 0.5\ngini = 0.5\nsamples = 6\nvalue = [3, 3]"] ;
117 -> 119 ;
120 [label="education_unknown <= 0.5\ngini = 0.375\nsamples = 4\nvalue = [1, 3]"] ;
119 -> 120 ;
121 [label="gini = 0.0\nsamples = 3\nvalue = [0, 3]"] ;
120 -> 121 ;
122 [label="gini = 0.0\nsamples = 1\nvalue = [1, 0]"] ;
120 -> 122 ;
123 [label="gini = 0.0\nsamples = 2\nvalue = [2, 0]"] ;
119 -> 123 ;
124 [label="gini = 0.0\nsamples = 23\nvalue = [23, 0]"] ;
116 -> 124 ;
125 [label="gini = 0.0\nsamples = 1\nvalue = [0, 1]"] ;
115 -> 125 ;
126 [label="contact_telephone <= 0.5\ngini = 0.375\nsamples = 4\nvalue = [1, 3]"] ;
114 -> 126 ;
127 [label="gini = 0.0\nsamples = 3\nvalue = [0, 3]"] ;
126 -> 127 ;
128 [label="gini = 0.0\nsamples = 1\nvalue = [1, 0]"] ;
126 -> 128 ;
129 [label="duration <= 186.5\ngini = 0.48\nsamples = 5\nvalue = [2, 3]"] ;
113 -> 129 ;
130 [label="gini = 0.0\nsamples = 3\nvalue = [0, 3]"] ;
129 -> 130 ;
131 [label="gini = 0.0\nsamples = 2\nvalue = [2, 0]"] ;
129 -> 131 ;
132 [label="pdays <= 391.0\ngini = 0.226\nsamples = 907\nvalue = [789, 118]"] ;
2 -> 132 ;
133 [label="age <= 60.5\ngini = 0.216\nsamples = 900\nvalue = [789, 111]"] ;
132 -> 133 ;
134 [label="previous <= 2.5\ngini = 0.198\nsamples = 869\nvalue = [772, 97]"] ;
133 -> 134 ;
135 [label="contact_unknown <= 0.5\ngini = 0.17\nsamples = 811\nvalue = [735, 76]"] ;
134 -> 135 ;
136 [label="day <= 29.5\ngini = 0.217\nsamples = 542\nvalue = [475, 67]"] ;
135 -> 136 ;
137 [label="day <= 3.5\ngini = 0.201\nsamples = 521\nvalue = [462, 59]"] ;
136 -> 137 ;
138 [label="month <= 2.5\ngini = 0.444\nsamples = 27\nvalue = [18, 9]"] ;
137 -> 138 ;
139 [label="balance <= 3235.5\ngini = 0.133\nsamples = 14\nvalue = [13, 1]"] ;
138 -> 139 ;
140 [label="gini = 0.0\nsamples = 12\nvalue = [12, 0]"] ;
139 -> 140 ;
141 [label="pdays <= 74.0\ngini = 0.5\nsamples = 2\nvalue = [1, 1]"] ;
139 -> 141 ;
142 [label="gini = 0.0\nsamples = 1\nvalue = [0, 1]"] ;
141 -> 142 ;
143 [label="gini = 0.0\nsamples = 1\nvalue = [1, 0]"] ;
141 -> 143 ;
144 [label="balance <= 5362.5\ngini = 0.473\nsamples = 13\nvalue = [5, 8]"] ;
138 -> 144 ;
145 [label="housing_no <= 0.5\ngini = 0.397\nsamples = 11\nvalue = [3, 8]"] ;
144 -> 145 ;
146 [label="gini = 0.0\nsamples = 5\nvalue = [0, 5]"] ;
145 -> 146 ;
147 [label="duration <= 287.0\ngini = 0.5\nsamples = 6\nvalue = [3, 3]"] ;
145 -> 147 ;
148 [label="gini = 0.0\nsamples = 3\nvalue = [3, 0]"] ;
147 -> 148 ;
149 [label="gini = 0.0\nsamples = 3\nvalue = [0, 3]"] ;
147 -> 149 ;
150 [label="gini = 0.0\nsamples = 2\nvalue = [2, 0]"] ;
144 -> 150 ;
151 [label="age <= 30.5\ngini = 0.182\nsamples = 494\nvalue = [444, 50]"] ;
137 -> 151 ;
152 [label="day <= 15.5\ngini = 0.348\nsamples = 67\nvalue = [52, 15]"] ;
151 -> 152 ;
153 [label="job_self-employed <= 0.5\ngini = 0.17\nsamples = 32\nvalue = [29, 3]"] ;
152 -> 153 ;
154 [label="day <= 5.5\ngini = 0.121\nsamples = 31\nvalue = [29, 2]"] ;
153 -> 154 ;
155 [label="housing_no <= 0.5\ngini = 0.5\nsamples = 4\nvalue = [2, 2]"] ;
154 -> 155 ;
156 [label="gini = 0.0\nsamples = 2\nvalue = [2, 0]"] ;
155 -> 156 ;
157 [label="gini = 0.0\nsamples = 2\nvalue = [0, 2]"] ;
155 -> 157 ;
158 [label="gini = 0.0\nsamples = 27\nvalue = [27, 0]"] ;
154 -> 158 ;
159 [label="gini = 0.0\nsamples = 1\nvalue = [0, 1]"] ;
153 -> 159 ;
160 [label="job_management <= 0.5\ngini = 0.451\nsamples = 35\nvalue = [23, 12]"] ;
152 -> 160 ;
161 [label="loan_no <= 0.5\ngini = 0.391\nsamples = 30\nvalue = [22, 8]"] ;
160 -> 161 ;
162 [label="duration <= 307.5\ngini = 0.375\nsamples = 4\nvalue = [1, 3]"] ;
161 -> 162 ;
163 [label="gini = 0.0\nsamples = 1\nvalue = [1, 0]"] ;
162 -> 163 ;
164 [label="gini = 0.0\nsamples = 3\nvalue = [0, 3]"] ;
162 -> 164 ;
165 [label="job_student <= 0.5\ngini = 0.311\nsamples = 26\nvalue = [21, 5]"] ;
161 -> 165 ;
166 [label="duration <= 390.0\ngini = 0.172\nsamples = 21\nvalue = [19, 2]"] ;
165 -> 166 ;
167 [label="gini = 0.0\nsamples = 14\nvalue = [14, 0]"] ;
166 -> 167 ;
168 [label="duration <= 403.5\ngini = 0.408\nsamples = 7\nvalue = [5, 2]"] ;
166 -> 168 ;
169 [label="gini = 0.0\nsamples = 2\nvalue = [0, 2]"] ;
168 -> 169 ;
170 [label="gini = 0.0\nsamples = 5\nvalue = [5, 0]"] ;
168 -> 170 ;
171 [label="day <= 18.0\ngini = 0.48\nsamples = 5\nvalue = [2, 3]"] ;
165 -> 171 ;
172 [label="gini = 0.0\nsamples = 2\nvalue = [2, 0]"] ;
171 -> 172 ;
173 [label="gini = 0.0\nsamples = 3\nvalue = [0, 3]"] ;
171 -> 173 ;
174 [label="campaign <= 5.0\ngini = 0.32\nsamples = 5\nvalue = [1, 4]"] ;
160 -> 174 ;
175 [label="gini = 0.0\nsamples = 4\nvalue = [0, 4]"] ;
174 -> 175 ;
176 [label="gini = 0.0\nsamples = 1\nvalue = [1, 0]"] ;
174 -> 176 ;
177 [label="balance <= -931.0\ngini = 0.15\nsamples = 427\nvalue = [392, 35]"] ;
151 -> 177 ;
178 [label="duration <= 317.5\ngini = 0.444\nsamples = 3\nvalue = [1, 2]"] ;
177 -> 178 ;
179 [label="gini = 0.0\nsamples = 1\nvalue = [1, 0]"] ;
178 -> 179 ;
180 [label="gini = 0.0\nsamples = 2\nvalue = [0, 2]"] ;
178 -> 180 ;
181 [label="duration <= 351.5\ngini = 0.144\nsamples = 424\nvalue = [391, 33]"] ;
177 -> 181 ;
182 [label="duration <= 230.5\ngini = 0.078\nsamples = 247\nvalue = [237, 10]"] ;
181 -> 182 ;
183 [label="balance <= 1055.5\ngini = 0.36\nsamples = 17\nvalue = [13, 4]"] ;
182 -> 183 ;
184 [label="age <= 43.5\ngini = 0.5\nsamples = 8\nvalue = [4, 4]"] ;
183 -> 184 ;
185 [label="balance <= 935.0\ngini = 0.32\nsamples = 5\nvalue = [4, 1]"] ;
184 -> 185 ;
186 [label="gini = 0.0\nsamples = 4\nvalue = [4, 0]"] ;
185 -> 186 ;
187 [label="gini = 0.0\nsamples = 1\nvalue = [0, 1]"] ;
185 -> 187 ;
188 [label="gini = 0.0\nsamples = 3\nvalue = [0, 3]"] ;
184 -> 188 ;
189 [label="gini = 0.0\nsamples = 9\nvalue = [9, 0]"] ;
183 -> 189 ;
190 [label="month <= 3.5\ngini = 0.051\nsamples = 230\nvalue = [224, 6]"] ;
182 -> 190 ;
191 [label="balance <= 2184.5\ngini = 0.245\nsamples = 21\nvalue = [18, 3]"] ;
190 -> 191 ;
192 [label="gini = 0.0\nsamples = 14\nvalue = [14, 0]"] ;
191 -> 192 ;
193 [label="day <= 27.5\ngini = 0.49\nsamples = 7\nvalue = [4, 3]"] ;
191 -> 193 ;
194 [label="day <= 7.5\ngini = 0.375\nsamples = 4\nvalue = [1, 3]"] ;
193 -> 194 ;
195 [label="gini = 0.0\nsamples = 1\nvalue = [1, 0]"] ;
194 -> 195 ;
196 [label="gini = 0.0\nsamples = 3\nvalue = [0, 3]"] ;
194 -> 196 ;
197 [label="gini = 0.0\nsamples = 3\nvalue = [3, 0]"] ;
193 -> 197 ;
198 [label="job_unknown <= 0.5\ngini = 0.028\nsamples = 209\nvalue = [206, 3]"] ;
190 -> 198 ;
199 [label="job_management <= 0.5\ngini = 0.019\nsamples = 206\nvalue = [204, 2]"] ;
198 -> 199 ;
200 [label="gini = 0.0\nsamples = 154\nvalue = [154, 0]"] ;
199 -> 200 ;
201 [label="balance <= 1502.5\ngini = 0.074\nsamples = 52\nvalue = [50, 2]"] ;
199 -> 201 ;
202 [label="gini = 0.0\nsamples = 38\nvalue = [38, 0]"] ;
201 -> 202 ;
203 [label="balance <= 1542.0\ngini = 0.245\nsamples = 14\nvalue = [12, 2]"] ;
201 -> 203 ;
204 [label="gini = 0.0\nsamples = 1\nvalue = [0, 1]"] ;
203 -> 204 ;
205 [label="day <= 13.5\ngini = 0.142\nsamples = 13\nvalue = [12, 1]"] ;
203 -> 205 ;
206 [label="marital_single <= 0.5\ngini = 0.444\nsamples = 3\nvalue = [2, 1]"] ;
205 -> 206 ;
207 [label="gini = 0.0\nsamples = 1\nvalue = [0, 1]"] ;
206 -> 207 ;
208 [label="gini = 0.0\nsamples = 2\nvalue = [2, 0]"] ;
206 -> 208 ;
209 [label="gini = 0.0\nsamples = 10\nvalue = [10, 0]"] ;
205 -> 209 ;
210 [label="campaign <= 2.0\ngini = 0.444\nsamples = 3\nvalue = [2, 1]"] ;
198 -> 210 ;
211 [label="gini = 0.0\nsamples = 1\nvalue = [0, 1]"] ;
210 -> 211 ;
212 [label="gini = 0.0\nsamples = 2\nvalue = [2, 0]"] ;
210 -> 212 ;
213 [label="contact_cellular <= 0.5\ngini = 0.226\nsamples = 177\nvalue = [154, 23]"] ;
181 -> 213 ;
214 [label="age <= 41.5\ngini = 0.49\nsamples = 7\nvalue = [3, 4]"] ;
213 -> 214 ;
215 [label="gini = 0.0\nsamples = 2\nvalue = [2, 0]"] ;
214 -> 215 ;
216 [label="job_blue-collar <= 0.5\ngini = 0.32\nsamples = 5\nvalue = [1, 4]"] ;
214 -> 216 ;
217 [label="gini = 0.0\nsamples = 4\nvalue = [0, 4]"] ;
216 -> 217 ;
218 [label="gini = 0.0\nsamples = 1\nvalue = [1, 0]"] ;
216 -> 218 ;
219 [label="housing_yes <= 0.5\ngini = 0.199\nsamples = 170\nvalue = [151, 19]"] ;
213 -> 219 ;
220 [label="day <= 26.5\ngini = 0.306\nsamples = 85\nvalue = [69, 16]"] ;
219 -> 220 ;
221 [label="default_no <= 0.5\ngini = 0.272\nsamples = 80\nvalue = [67, 13]"] ;
220 -> 221 ;
222 [label="duration <= 436.0\ngini = 0.444\nsamples = 3\nvalue = [1, 2]"] ;
221 -> 222 ;
223 [label="gini = 0.0\nsamples = 1\nvalue = [1, 0]"] ;
222 -> 223 ;
224 [label="gini = 0.0\nsamples = 2\nvalue = [0, 2]"] ;
222 -> 224 ;
225 [label="duration <= 352.5\ngini = 0.245\nsamples = 77\nvalue = [66, 11]"] ;
221 -> 225 ;
226 [label="gini = 0.0\nsamples = 1\nvalue = [0, 1]"] ;
225 -> 226 ;
227 [label="age <= 53.5\ngini = 0.229\nsamples = 76\nvalue = [66, 10]"] ;
225 -> 227 ;
228 [label="poutcome_failure <= 0.5\ngini = 0.278\nsamples = 60\nvalue = [50, 10]"] ;
227 -> 228 ;
229 [label="duration <= 500.5\ngini = 0.259\nsamples = 59\nvalue = [50, 9]"] ;
228 -> 229 ;
230 [label="campaign <= 5.5\ngini = 0.19\nsamples = 47\nvalue = [42, 5]"] ;
229 -> 230 ;
231 [label="duration <= 355.0\ngini = 0.095\nsamples = 40\nvalue = [38, 2]"] ;
230 -> 231 ;
232 [label="age <= 40.5\ngini = 0.5\nsamples = 2\nvalue = [1, 1]"] ;
231 -> 232 ;
233 [label="gini = 0.0\nsamples = 1\nvalue = [1, 0]"] ;
232 -> 233 ;
234 [label="gini = 0.0\nsamples = 1\nvalue = [0, 1]"] ;
232 -> 234 ;
235 [label="job_admin. <= 0.5\ngini = 0.051\nsamples = 38\nvalue = [37, 1]"] ;
231 -> 235 ;
236 [label="gini = 0.0\nsamples = 34\nvalue = [34, 0]"] ;
235 -> 236 ;
237 [label="day <= 10.0\ngini = 0.375\nsamples = 4\nvalue = [3, 1]"] ;
235 -> 237 ;
238 [label="gini = 0.0\nsamples = 1\nvalue = [0, 1]"] ;
237 -> 238 ;
239 [label="gini = 0.0\nsamples = 3\nvalue = [3, 0]"] ;
237 -> 239 ;
240 [label="loan_yes <= 0.5\ngini = 0.49\nsamples = 7\nvalue = [4, 3]"] ;
230 -> 240 ;
241 [label="campaign <= 7.5\ngini = 0.48\nsamples = 5\nvalue = [2, 3]"] ;
240 -> 241 ;
242 [label="gini = 0.0\nsamples = 3\nvalue = [0, 3]"] ;
241 -> 242 ;
243 [label="gini = 0.0\nsamples = 2\nvalue = [2, 0]"] ;
241 -> 243 ;
244 [label="gini = 0.0\nsamples = 2\nvalue = [2, 0]"] ;
240 -> 244 ;
245 [label="duration <= 502.5\ngini = 0.444\nsamples = 12\nvalue = [8, 4]"] ;
229 -> 245 ;
246 [label="gini = 0.0\nsamples = 1\nvalue = [0, 1]"] ;
245 -> 246 ;
247 [label="balance <= 155.5\ngini = 0.397\nsamples = 11\nvalue = [8, 3]"] ;
245 -> 247 ;
248 [label="balance <= -229.5\ngini = 0.444\nsamples = 3\nvalue = [1, 2]"] ;
247 -> 248 ;
249 [label="gini = 0.0\nsamples = 1\nvalue = [1, 0]"] ;
248 -> 249 ;
250 [label="gini = 0.0\nsamples = 2\nvalue = [0, 2]"] ;
248 -> 250 ;
251 [label="job_housemaid <= 0.5\ngini = 0.219\nsamples = 8\nvalue = [7, 1]"] ;
247 -> 251 ;
252 [label="gini = 0.0\nsamples = 6\nvalue = [6, 0]"] ;
251 -> 252 ;
253 [label="age <= 39.5\ngini = 0.5\nsamples = 2\nvalue = [1, 1]"] ;
251 -> 253 ;
254 [label="gini = 0.0\nsamples = 1\nvalue = [0, 1]"] ;
253 -> 254 ;
255 [label="gini = 0.0\nsamples = 1\nvalue = [1, 0]"] ;
253 -> 255 ;
256 [label="gini = 0.0\nsamples = 1\nvalue = [0, 1]"] ;
228 -> 256 ;
257 [label="gini = 0.0\nsamples = 16\nvalue = [16, 0]"] ;
227 -> 257 ;
258 [label="job_management <= 0.5\ngini = 0.48\nsamples = 5\nvalue = [2, 3]"] ;
220 -> 258 ;
259 [label="gini = 0.0\nsamples = 2\nvalue = [2, 0]"] ;
258 -> 259 ;
260 [label="gini = 0.0\nsamples = 3\nvalue = [0, 3]"] ;
258 -> 260 ;
261 [label="job_retired <= 0.5\ngini = 0.068\nsamples = 85\nvalue = [82, 3]"] ;
219 -> 261 ;
262 [label="poutcome_other <= 0.5\ngini = 0.048\nsamples = 81\nvalue = [79, 2]"] ;
261 -> 262 ;
263 [label="duration <= 521.0\ngini = 0.026\nsamples = 76\nvalue = [75, 1]"] ;
262 -> 263 ;
264 [label="gini = 0.0\nsamples = 67\nvalue = [67, 0]"] ;
263 -> 264 ;
265 [label="duration <= 527.0\ngini = 0.198\nsamples = 9\nvalue = [8, 1]"] ;
263 -> 265 ;
266 [label="gini = 0.0\nsamples = 1\nvalue = [0, 1]"] ;
265 -> 266 ;
267 [label="gini = 0.0\nsamples = 8\nvalue = [8, 0]"] ;
265 -> 267 ;
268 [label="job_technician <= 0.5\ngini = 0.32\nsamples = 5\nvalue = [4, 1]"] ;
262 -> 268 ;
269 [label="gini = 0.0\nsamples = 4\nvalue = [4, 0]"] ;
268 -> 269 ;
270 [label="gini = 0.0\nsamples = 1\nvalue = [0, 1]"] ;
268 -> 270 ;
271 [label="age <= 55.0\ngini = 0.375\nsamples = 4\nvalue = [3, 1]"] ;
261 -> 271 ;
272 [label="gini = 0.0\nsamples = 1\nvalue = [0, 1]"] ;
271 -> 272 ;
273 [label="gini = 0.0\nsamples = 3\nvalue = [3, 0]"] ;
271 -> 273 ;
274 [label="campaign <= 2.5\ngini = 0.472\nsamples = 21\nvalue = [13, 8]"] ;
136 -> 274 ;
275 [label="job_unemployed <= 0.5\ngini = 0.346\nsamples = 9\nvalue = [2, 7]"] ;
274 -> 275 ;
276 [label="poutcome_unknown <= 0.5\ngini = 0.219\nsamples = 8\nvalue = [1, 7]"] ;
275 -> 276 ;
277 [label="gini = 0.0\nsamples = 1\nvalue = [1, 0]"] ;
276 -> 277 ;
278 [label="gini = 0.0\nsamples = 7\nvalue = [0, 7]"] ;
276 -> 278 ;
279 [label="gini = 0.0\nsamples = 1\nvalue = [1, 0]"] ;
275 -> 279 ;
280 [label="age <= 28.0\ngini = 0.153\nsamples = 12\nvalue = [11, 1]"] ;
274 -> 280 ;
281 [label="gini = 0.0\nsamples = 1\nvalue = [0, 1]"] ;
280 -> 281 ;
282 [label="gini = 0.0\nsamples = 11\nvalue = [11, 0]"] ;
280 -> 282 ;
283 [label="month <= 7.5\ngini = 0.065\nsamples = 269\nvalue = [260, 9]"] ;
135 -> 283 ;
284 [label="day <= 1.5\ngini = 0.051\nsamples = 267\nvalue = [260, 7]"] ;
283 -> 284 ;
285 [label="gini = 0.0\nsamples = 1\nvalue = [0, 1]"] ;
284 -> 285 ;
286 [label="duration <= 553.5\ngini = 0.044\nsamples = 266\nvalue = [260, 6]"] ;
284 -> 286 ;
287 [label="duration <= 411.5\ngini = 0.037\nsamples = 263\nvalue = [258, 5]"] ;
286 -> 287 ;
288 [label="age <= 28.5\ngini = 0.01\nsamples = 205\nvalue = [204, 1]"] ;
287 -> 288 ;
289 [label="duration <= 364.5\ngini = 0.069\nsamples = 28\nvalue = [27, 1]"] ;
288 -> 289 ;
290 [label="gini = 0.0\nsamples = 23\nvalue = [23, 0]"] ;
289 -> 290 ;
291 [label="duration <= 374.5\ngini = 0.32\nsamples = 5\nvalue = [4, 1]"] ;
289 -> 291 ;
292 [label="gini = 0.0\nsamples = 1\nvalue = [0, 1]"] ;
291 -> 292 ;
293 [label="gini = 0.0\nsamples = 4\nvalue = [4, 0]"] ;
291 -> 293 ;
294 [label="gini = 0.0\nsamples = 177\nvalue = [177, 0]"] ;
288 -> 294 ;
295 [label="default_yes <= 0.5\ngini = 0.128\nsamples = 58\nvalue = [54, 4]"] ;
287 -> 295 ;
296 [label="job_admin. <= 0.5\ngini = 0.1\nsamples = 57\nvalue = [54, 3]"] ;
295 -> 296 ;
297 [label="balance <= 3977.0\ngini = 0.038\nsamples = 51\nvalue = [50, 1]"] ;
296 -> 297 ;
298 [label="gini = 0.0\nsamples = 44\nvalue = [44, 0]"] ;
297 -> 298 ;
299 [label="balance <= 4442.0\ngini = 0.245\nsamples = 7\nvalue = [6, 1]"] ;
297 -> 299 ;
300 [label="gini = 0.0\nsamples = 1\nvalue = [0, 1]"] ;
299 -> 300 ;
301 [label="gini = 0.0\nsamples = 6\nvalue = [6, 0]"] ;
299 -> 301 ;
302 [label="education_primary <= 0.5\ngini = 0.444\nsamples = 6\nvalue = [4, 2]"] ;
296 -> 302 ;
303 [label="day <= 21.5\ngini = 0.32\nsamples = 5\nvalue = [4, 1]"] ;
302 -> 303 ;
304 [label="gini = 0.0\nsamples = 4\nvalue = [4, 0]"] ;
303 -> 304 ;
305 [label="gini = 0.0\nsamples = 1\nvalue = [0, 1]"] ;
303 -> 305 ;
306 [label="gini = 0.0\nsamples = 1\nvalue = [0, 1]"] ;
302 -> 306 ;
307 [label="gini = 0.0\nsamples = 1\nvalue = [0, 1]"] ;
295 -> 307 ;
308 [label="duration <= 556.5\ngini = 0.444\nsamples = 3\nvalue = [2, 1]"] ;
286 -> 308 ;
309 [label="gini = 0.0\nsamples = 1\nvalue = [0, 1]"] ;
308 -> 309 ;
310 [label="gini = 0.0\nsamples = 2\nvalue = [2, 0]"] ;
308 -> 310 ;
311 [label="gini = 0.0\nsamples = 2\nvalue = [0, 2]"] ;
283 -> 311 ;
312 [label="month <= 5.5\ngini = 0.462\nsamples = 58\nvalue = [37, 21]"] ;
134 -> 312 ;
313 [label="marital_divorced <= 0.5\ngini = 0.355\nsamples = 39\nvalue = [30, 9]"] ;
312 -> 313 ;
314 [label="job_housemaid <= 0.5\ngini = 0.284\nsamples = 35\nvalue = [29, 6]"] ;
313 -> 314 ;
315 [label="day <= 17.5\ngini = 0.251\nsamples = 34\nvalue = [29, 5]"] ;
314 -> 315 ;
316 [label="day <= 2.5\ngini = 0.142\nsamples = 26\nvalue = [24, 2]"] ;
315 -> 316 ;
317 [label="job_management <= 0.5\ngini = 0.5\nsamples = 2\nvalue = [1, 1]"] ;
316 -> 317 ;
318 [label="gini = 0.0\nsamples = 1\nvalue = [1, 0]"] ;
317 -> 318 ;
319 [label="gini = 0.0\nsamples = 1\nvalue = [0, 1]"] ;
317 -> 319 ;
320 [label="job_admin. <= 0.5\ngini = 0.08\nsamples = 24\nvalue = [23, 1]"] ;
316 -> 320 ;
321 [label="gini = 0.0\nsamples = 22\nvalue = [22, 0]"] ;
320 -> 321 ;
322 [label="duration <= 363.0\ngini = 0.5\nsamples = 2\nvalue = [1, 1]"] ;
320 -> 322 ;
323 [label="gini = 0.0\nsamples = 1\nvalue = [1, 0]"] ;
322 -> 323 ;
324 [label="gini = 0.0\nsamples = 1\nvalue = [0, 1]"] ;
322 -> 324 ;
325 [label="balance <= 342.5\ngini = 0.469\nsamples = 8\nvalue = [5, 3]"] ;
315 -> 325 ;
326 [label="gini = 0.0\nsamples = 3\nvalue = [0, 3]"] ;
325 -> 326 ;
327 [label="gini = 0.0\nsamples = 5\nvalue = [5, 0]"] ;
325 -> 327 ;
328 [label="gini = 0.0\nsamples = 1\nvalue = [0, 1]"] ;
314 -> 328 ;
329 [label="balance <= 446.5\ngini = 0.375\nsamples = 4\nvalue = [1, 3]"] ;
313 -> 329 ;
330 [label="gini = 0.0\nsamples = 1\nvalue = [1, 0]"] ;
329 -> 330 ;
331 [label="gini = 0.0\nsamples = 3\nvalue = [0, 3]"] ;
329 -> 331 ;
332 [label="poutcome_failure <= 0.5\ngini = 0.465\nsamples = 19\nvalue = [7, 12]"] ;
312 -> 332 ;
333 [label="balance <= 285.5\ngini = 0.165\nsamples = 11\nvalue = [1, 10]"] ;
332 -> 333 ;
334 [label="gini = 0.0\nsamples = 1\nvalue = [1, 0]"] ;
333 -> 334 ;
335 [label="gini = 0.0\nsamples = 10\nvalue = [0, 10]"] ;
333 -> 335 ;
336 [label="education_primary <= 0.5\ngini = 0.375\nsamples = 8\nvalue = [6, 2]"] ;
332 -> 336 ;
337 [label="month <= 6.5\ngini = 0.245\nsamples = 7\nvalue = [6, 1]"] ;
336 -> 337 ;
338 [label="gini = 0.0\nsamples = 1\nvalue = [0, 1]"] ;
337 -> 338 ;
339 [label="gini = 0.0\nsamples = 6\nvalue = [6, 0]"] ;
337 -> 339 ;
340 [label="gini = 0.0\nsamples = 1\nvalue = [0, 1]"] ;
336 -> 340 ;
341 [label="day <= 15.5\ngini = 0.495\nsamples = 31\nvalue = [17, 14]"] ;
133 -> 341 ;
342 [label="education_tertiary <= 0.5\ngini = 0.36\nsamples = 17\nvalue = [13, 4]"] ;
341 -> 342 ;
343 [label="gini = 0.0\nsamples = 11\nvalue = [11, 0]"] ;
342 -> 343 ;
344 [label="job_management <= 0.5\ngini = 0.444\nsamples = 6\nvalue = [2, 4]"] ;
342 -> 344 ;
345 [label="gini = 0.0\nsamples = 3\nvalue = [0, 3]"] ;
344 -> 345 ;
346 [label="contact_cellular <= 0.5\ngini = 0.444\nsamples = 3\nvalue = [2, 1]"] ;
344 -> 346 ;
347 [label="gini = 0.0\nsamples = 1\nvalue = [0, 1]"] ;
346 -> 347 ;
348 [label="gini = 0.0\nsamples = 2\nvalue = [2, 0]"] ;
346 -> 348 ;
349 [label="age <= 76.0\ngini = 0.408\nsamples = 14\nvalue = [4, 10]"] ;
341 -> 349 ;
350 [label="balance <= 4305.0\ngini = 0.278\nsamples = 12\nvalue = [2, 10]"] ;
349 -> 350 ;
351 [label="gini = 0.0\nsamples = 9\nvalue = [0, 9]"] ;
350 -> 351 ;
352 [label="month <= 3.5\ngini = 0.444\nsamples = 3\nvalue = [2, 1]"] ;
350 -> 352 ;
353 [label="gini = 0.0\nsamples = 1\nvalue = [0, 1]"] ;
352 -> 353 ;
354 [label="gini = 0.0\nsamples = 2\nvalue = [2, 0]"] ;
352 -> 354 ;
355 [label="gini = 0.0\nsamples = 2\nvalue = [2, 0]"] ;
349 -> 355 ;
356 [label="gini = 0.0\nsamples = 7\nvalue = [0, 7]"] ;
132 -> 356 ;
357 [label="duration <= 146.5\ngini = 0.458\nsamples = 79\nvalue = [28, 51]"] ;
1 -> 357 ;
358 [label="age <= 31.0\ngini = 0.278\nsamples = 12\nvalue = [10, 2]"] ;
357 -> 358 ;
359 [label="pdays <= 158.0\ngini = 0.444\nsamples = 3\nvalue = [1, 2]"] ;
358 -> 359 ;
360 [label="gini = 0.0\nsamples = 2\nvalue = [0, 2]"] ;
359 -> 360 ;
361 [label="gini = 0.0\nsamples = 1\nvalue = [1, 0]"] ;
359 -> 361 ;
362 [label="gini = 0.0\nsamples = 9\nvalue = [9, 0]"] ;
358 -> 362 ;
363 [label="pdays <= 190.5\ngini = 0.393\nsamples = 67\nvalue = [18, 49]"] ;
357 -> 363 ;
364 [label="duration <= 212.0\ngini = 0.324\nsamples = 54\nvalue = [11, 43]"] ;
363 -> 364 ;
365 [label="age <= 31.5\ngini = 0.486\nsamples = 12\nvalue = [5, 7]"] ;
364 -> 365 ;
366 [label="gini = 0.0\nsamples = 3\nvalue = [3, 0]"] ;
365 -> 366 ;
367 [label="age <= 62.0\ngini = 0.346\nsamples = 9\nvalue = [2, 7]"] ;
365 -> 367 ;
368 [label="job_housemaid <= 0.5\ngini = 0.219\nsamples = 8\nvalue = [1, 7]"] ;
367 -> 368 ;
369 [label="gini = 0.0\nsamples = 7\nvalue = [0, 7]"] ;
368 -> 369 ;
370 [label="gini = 0.0\nsamples = 1\nvalue = [1, 0]"] ;
368 -> 370 ;
371 [label="gini = 0.0\nsamples = 1\nvalue = [1, 0]"] ;
367 -> 371 ;
372 [label="pdays <= 35.5\ngini = 0.245\nsamples = 42\nvalue = [6, 36]"] ;
364 -> 372 ;
373 [label="gini = 0.0\nsamples = 1\nvalue = [1, 0]"] ;
372 -> 373 ;
374 [label="day <= 15.5\ngini = 0.214\nsamples = 41\nvalue = [5, 36]"] ;
372 -> 374 ;
375 [label="job_housemaid <= 0.5\ngini = 0.311\nsamples = 26\nvalue = [5, 21]"] ;
374 -> 375 ;
376 [label="balance <= 569.5\ngini = 0.269\nsamples = 25\nvalue = [4, 21]"] ;
375 -> 376 ;
377 [label="gini = 0.0\nsamples = 10\nvalue = [0, 10]"] ;
376 -> 377 ;
378 [label="balance <= 3269.5\ngini = 0.391\nsamples = 15\nvalue = [4, 11]"] ;
376 -> 378 ;
379 [label="job_management <= 0.5\ngini = 0.494\nsamples = 9\nvalue = [4, 5]"] ;
378 -> 379 ;
380 [label="education_secondary <= 0.5\ngini = 0.444\nsamples = 6\nvalue = [4, 2]"] ;
379 -> 380 ;
381 [label="gini = 0.0\nsamples = 3\nvalue = [3, 0]"] ;
380 -> 381 ;
382 [label="balance <= 2693.5\ngini = 0.444\nsamples = 3\nvalue = [1, 2]"] ;
380 -> 382 ;
383 [label="gini = 0.0\nsamples = 2\nvalue = [0, 2]"] ;
382 -> 383 ;
384 [label="gini = 0.0\nsamples = 1\nvalue = [1, 0]"] ;
382 -> 384 ;
385 [label="gini = 0.0\nsamples = 3\nvalue = [0, 3]"] ;
379 -> 385 ;
386 [label="gini = 0.0\nsamples = 6\nvalue = [0, 6]"] ;
378 -> 386 ;
387 [label="gini = 0.0\nsamples = 1\nvalue = [1, 0]"] ;
375 -> 387 ;
388 [label="gini = 0.0\nsamples = 15\nvalue = [0, 15]"] ;
374 -> 388 ;
389 [label="age <= 38.5\ngini = 0.497\nsamples = 13\nvalue = [7, 6]"] ;
363 -> 389 ;
390 [label="gini = 0.0\nsamples = 4\nvalue = [4, 0]"] ;
389 -> 390 ;
391 [label="job_admin. <= 0.5\ngini = 0.444\nsamples = 9\nvalue = [3, 6]"] ;
389 -> 391 ;
392 [label="duration <= 261.0\ngini = 0.245\nsamples = 7\nvalue = [1, 6]"] ;
391 -> 392 ;
393 [label="gini = 0.0\nsamples = 1\nvalue = [1, 0]"] ;
392 -> 393 ;
394 [label="gini = 0.0\nsamples = 6\nvalue = [0, 6]"] ;
392 -> 394 ;
395 [label="gini = 0.0\nsamples = 2\nvalue = [2, 0]"] ;
391 -> 395 ;
396 [label="duration <= 764.5\ngini = 0.494\nsamples = 339\nvalue = [188, 151]"] ;
0 -> 396 [labeldistance=2.5, labelangle=-45, headlabel="False"] ;
397 [label="poutcome_success <= 0.5\ngini = 0.443\nsamples = 187\nvalue = [125, 62]"] ;
396 -> 397 ;
398 [label="duration <= 563.5\ngini = 0.425\nsamples = 176\nvalue = [122, 54]"] ;
397 -> 398 ;
399 [label="gini = 0.0\nsamples = 3\nvalue = [0, 3]"] ;
398 -> 399 ;
400 [label="age <= 58.5\ngini = 0.416\nsamples = 173\nvalue = [122, 51]"] ;
398 -> 400 ;
401 [label="contact_cellular <= 0.5\ngini = 0.396\nsamples = 162\nvalue = [118, 44]"] ;
400 -> 401 ;
402 [label="job_retired <= 0.5\ngini = 0.285\nsamples = 64\nvalue = [53, 11]"] ;
401 -> 402 ;
403 [label="day <= 1.5\ngini = 0.248\nsamples = 62\nvalue = [53, 9]"] ;
402 -> 403 ;
404 [label="gini = 0.0\nsamples = 1\nvalue = [0, 1]"] ;
403 -> 404 ;
405 [label="duration <= 754.5\ngini = 0.228\nsamples = 61\nvalue = [53, 8]"] ;
403 -> 405 ;
406 [label="age <= 27.5\ngini = 0.191\nsamples = 56\nvalue = [50, 6]"] ;
405 -> 406 ;
407 [label="duration <= 606.0\ngini = 0.48\nsamples = 5\nvalue = [3, 2]"] ;
406 -> 407 ;
408 [label="balance <= 616.5\ngini = 0.444\nsamples = 3\nvalue = [1, 2]"] ;
407 -> 408 ;
409 [label="gini = 0.0\nsamples = 1\nvalue = [1, 0]"] ;
408 -> 409 ;
410 [label="gini = 0.0\nsamples = 2\nvalue = [0, 2]"] ;
408 -> 410 ;
411 [label="gini = 0.0\nsamples = 2\nvalue = [2, 0]"] ;
407 -> 411 ;
412 [label="job_housemaid <= 0.5\ngini = 0.145\nsamples = 51\nvalue = [47, 4]"] ;
406 -> 412 ;
413 [label="job_self-employed <= 0.5\ngini = 0.115\nsamples = 49\nvalue = [46, 3]"] ;
412 -> 413 ;
414 [label="job_admin. <= 0.5\ngini = 0.083\nsamples = 46\nvalue = [44, 2]"] ;
413 -> 414 ;
415 [label="age <= 31.5\ngini = 0.046\nsamples = 42\nvalue = [41, 1]"] ;
414 -> 415 ;
416 [label="balance <= 97.0\ngini = 0.245\nsamples = 7\nvalue = [6, 1]"] ;
415 -> 416 ;
417 [label="gini = 0.0\nsamples = 1\nvalue = [0, 1]"] ;
416 -> 417 ;
418 [label="gini = 0.0\nsamples = 6\nvalue = [6, 0]"] ;
416 -> 418 ;
419 [label="gini = 0.0\nsamples = 35\nvalue = [35, 0]"] ;
415 -> 419 ;
420 [label="balance <= 416.0\ngini = 0.375\nsamples = 4\nvalue = [3, 1]"] ;
414 -> 420 ;
421 [label="gini = 0.0\nsamples = 3\nvalue = [3, 0]"] ;
420 -> 421 ;
422 [label="gini = 0.0\nsamples = 1\nvalue = [0, 1]"] ;
420 -> 422 ;
423 [label="housing_no <= 0.5\ngini = 0.444\nsamples = 3\nvalue = [2, 1]"] ;
413 -> 423 ;
424 [label="gini = 0.0\nsamples = 2\nvalue = [2, 0]"] ;
423 -> 424 ;
425 [label="gini = 0.0\nsamples = 1\nvalue = [0, 1]"] ;
423 -> 425 ;
426 [label="campaign <= 2.0\ngini = 0.5\nsamples = 2\nvalue = [1, 1]"] ;
412 -> 426 ;
427 [label="gini = 0.0\nsamples = 1\nvalue = [0, 1]"] ;
426 -> 427 ;
428 [label="gini = 0.0\nsamples = 1\nvalue = [1, 0]"] ;
426 -> 428 ;
429 [label="duration <= 762.5\ngini = 0.48\nsamples = 5\nvalue = [3, 2]"] ;
405 -> 429 ;
430 [label="age <= 32.0\ngini = 0.444\nsamples = 3\nvalue = [1, 2]"] ;
429 -> 430 ;
431 [label="gini = 0.0\nsamples = 1\nvalue = [1, 0]"] ;
430 -> 431 ;
432 [label="gini = 0.0\nsamples = 2\nvalue = [0, 2]"] ;
430 -> 432 ;
433 [label="gini = 0.0\nsamples = 2\nvalue = [2, 0]"] ;
429 -> 433 ;
434 [label="gini = 0.0\nsamples = 2\nvalue = [0, 2]"] ;
402 -> 434 ;
435 [label="job_technician <= 0.5\ngini = 0.447\nsamples = 98\nvalue = [65, 33]"] ;
401 -> 435 ;
436 [label="month <= 4.5\ngini = 0.413\nsamples = 79\nvalue = [56, 23]"] ;
435 -> 436 ;
437 [label="day <= 29.5\ngini = 0.117\nsamples = 16\nvalue = [15, 1]"] ;
436 -> 437 ;
438 [label="gini = 0.0\nsamples = 14\nvalue = [14, 0]"] ;
437 -> 438 ;
439 [label="campaign <= 1.5\ngini = 0.5\nsamples = 2\nvalue = [1, 1]"] ;
437 -> 439 ;
440 [label="gini = 0.0\nsamples = 1\nvalue = [0, 1]"] ;
439 -> 440 ;
441 [label="gini = 0.0\nsamples = 1\nvalue = [1, 0]"] ;
439 -> 441 ;
442 [label="age <= 42.5\ngini = 0.455\nsamples = 63\nvalue = [41, 22]"] ;
436 -> 442 ;
443 [label="duration <= 640.5\ngini = 0.494\nsamples = 38\nvalue = [21, 17]"] ;
442 -> 443 ;
444 [label="balance <= -10.0\ngini = 0.375\nsamples = 20\nvalue = [15, 5]"] ;
443 -> 444 ;
445 [label="gini = 0.0\nsamples = 2\nvalue = [0, 2]"] ;
444 -> 445 ;
446 [label="education_tertiary <= 0.5\ngini = 0.278\nsamples = 18\nvalue = [15, 3]"] ;
444 -> 446 ;
447 [label="gini = 0.0\nsamples = 10\nvalue = [10, 0]"] ;
446 -> 447 ;
448 [label="campaign <= 2.5\ngini = 0.469\nsamples = 8\nvalue = [5, 3]"] ;
446 -> 448 ;
449 [label="age <= 27.5\ngini = 0.278\nsamples = 6\nvalue = [5, 1]"] ;
448 -> 449 ;
450 [label="gini = 0.0\nsamples = 1\nvalue = [0, 1]"] ;
449 -> 450 ;
451 [label="gini = 0.0\nsamples = 5\nvalue = [5, 0]"] ;
449 -> 451 ;
452 [label="gini = 0.0\nsamples = 2\nvalue = [0, 2]"] ;
448 -> 452 ;
453 [label="month <= 10.5\ngini = 0.444\nsamples = 18\nvalue = [6, 12]"] ;
443 -> 453 ;
454 [label="duration <= 692.0\ngini = 0.337\nsamples = 14\nvalue = [3, 11]"] ;
453 -> 454 ;
455 [label="gini = 0.0\nsamples = 8\nvalue = [0, 8]"] ;
454 -> 455 ;
456 [label="job_blue-collar <= 0.5\ngini = 0.5\nsamples = 6\nvalue = [3, 3]"] ;
454 -> 456 ;
457 [label="gini = 0.0\nsamples = 3\nvalue = [3, 0]"] ;
456 -> 457 ;
458 [label="gini = 0.0\nsamples = 3\nvalue = [0, 3]"] ;
456 -> 458 ;
459 [label="day <= 20.0\ngini = 0.375\nsamples = 4\nvalue = [3, 1]"] ;
453 -> 459 ;
460 [label="gini = 0.0\nsamples = 3\nvalue = [3, 0]"] ;
459 -> 460 ;
461 [label="gini = 0.0\nsamples = 1\nvalue = [0, 1]"] ;
459 -> 461 ;
462 [label="education_primary <= 0.5\ngini = 0.32\nsamples = 25\nvalue = [20, 5]"] ;
442 -> 462 ;
463 [label="job_entrepreneur <= 0.5\ngini = 0.1\nsamples = 19\nvalue = [18, 1]"] ;
462 -> 463 ;
464 [label="gini = 0.0\nsamples = 16\nvalue = [16, 0]"] ;
463 -> 464 ;
465 [label="duration <= 640.5\ngini = 0.444\nsamples = 3\nvalue = [2, 1]"] ;
463 -> 465 ;
466 [label="gini = 0.0\nsamples = 1\nvalue = [0, 1]"] ;
465 -> 466 ;
467 [label="gini = 0.0\nsamples = 2\nvalue = [2, 0]"] ;
465 -> 467 ;
468 [label="day <= 28.5\ngini = 0.444\nsamples = 6\nvalue = [2, 4]"] ;
462 -> 468 ;
469 [label="gini = 0.0\nsamples = 4\nvalue = [0, 4]"] ;
468 -> 469 ;
470 [label="gini = 0.0\nsamples = 2\nvalue = [2, 0]"] ;
468 -> 470 ;
471 [label="balance <= 857.5\ngini = 0.499\nsamples = 19\nvalue = [9, 10]"] ;
435 -> 471 ;
472 [label="day <= 8.0\ngini = 0.473\nsamples = 13\nvalue = [8, 5]"] ;
471 -> 472 ;
473 [label="gini = 0.0\nsamples = 2\nvalue = [0, 2]"] ;
472 -> 473 ;
474 [label="duration <= 597.5\ngini = 0.397\nsamples = 11\nvalue = [8, 3]"] ;
472 -> 474 ;
475 [label="housing_no <= 0.5\ngini = 0.444\nsamples = 3\nvalue = [1, 2]"] ;
474 -> 475 ;
476 [label="gini = 0.0\nsamples = 1\nvalue = [1, 0]"] ;
475 -> 476 ;
477 [label="gini = 0.0\nsamples = 2\nvalue = [0, 2]"] ;
475 -> 477 ;
478 [label="campaign <= 9.5\ngini = 0.219\nsamples = 8\nvalue = [7, 1]"] ;
474 -> 478 ;
479 [label="gini = 0.0\nsamples = 7\nvalue = [7, 0]"] ;
478 -> 479 ;
480 [label="gini = 0.0\nsamples = 1\nvalue = [0, 1]"] ;
478 -> 480 ;
481 [label="balance <= 3819.0\ngini = 0.278\nsamples = 6\nvalue = [1, 5]"] ;
471 -> 481 ;
482 [label="gini = 0.0\nsamples = 5\nvalue = [0, 5]"] ;
481 -> 482 ;
483 [label="gini = 0.0\nsamples = 1\nvalue = [1, 0]"] ;
481 -> 483 ;
484 [label="duration <= 637.5\ngini = 0.463\nsamples = 11\nvalue = [4, 7]"] ;
400 -> 484 ;
485 [label="marital_married <= 0.5\ngini = 0.375\nsamples = 4\nvalue = [3, 1]"] ;
484 -> 485 ;
486 [label="gini = 0.0\nsamples = 1\nvalue = [0, 1]"] ;
485 -> 486 ;
487 [label="gini = 0.0\nsamples = 3\nvalue = [3, 0]"] ;
485 -> 487 ;
488 [label="balance <= 7030.0\ngini = 0.245\nsamples = 7\nvalue = [1, 6]"] ;
484 -> 488 ;
489 [label="gini = 0.0\nsamples = 5\nvalue = [0, 5]"] ;
488 -> 489 ;
490 [label="previous <= 6.0\ngini = 0.5\nsamples = 2\nvalue = [1, 1]"] ;
488 -> 490 ;
491 [label="gini = 0.0\nsamples = 1\nvalue = [1, 0]"] ;
490 -> 491 ;
492 [label="gini = 0.0\nsamples = 1\nvalue = [0, 1]"] ;
490 -> 492 ;
493 [label="day <= 30.5\ngini = 0.397\nsamples = 11\nvalue = [3, 8]"] ;
397 -> 493 ;
494 [label="previous <= 7.0\ngini = 0.198\nsamples = 9\nvalue = [1, 8]"] ;
493 -> 494 ;
495 [label="gini = 0.0\nsamples = 8\nvalue = [0, 8]"] ;
494 -> 495 ;
496 [label="gini = 0.0\nsamples = 1\nvalue = [1, 0]"] ;
494 -> 496 ;
497 [label="gini = 0.0\nsamples = 2\nvalue = [2, 0]"] ;
493 -> 497 ;
498 [label="marital_divorced <= 0.5\ngini = 0.485\nsamples = 152\nvalue = [63, 89]"] ;
396 -> 498 ;
499 [label="education_tertiary <= 0.5\ngini = 0.496\nsamples = 134\nvalue = [61, 73]"] ;
498 -> 499 ;
500 [label="age <= 58.5\ngini = 0.5\nsamples = 99\nvalue = [51, 48]"] ;
499 -> 500 ;
501 [label="contact_unknown <= 0.5\ngini = 0.492\nsamples = 89\nvalue = [50, 39]"] ;
500 -> 501 ;
502 [label="duration <= 933.0\ngini = 0.498\nsamples = 62\nvalue = [29, 33]"] ;
501 -> 502 ;
503 [label="day <= 9.0\ngini = 0.434\nsamples = 22\nvalue = [15, 7]"] ;
502 -> 503 ;
504 [label="gini = 0.0\nsamples = 4\nvalue = [0, 4]"] ;
503 -> 504 ;
505 [label="age <= 56.5\ngini = 0.278\nsamples = 18\nvalue = [15, 3]"] ;
503 -> 505 ;
506 [label="month <= 4.5\ngini = 0.208\nsamples = 17\nvalue = [15, 2]"] ;
505 -> 506 ;
507 [label="age <= 34.0\ngini = 0.5\nsamples = 4\nvalue = [2, 2]"] ;
506 -> 507 ;
508 [label="gini = 0.0\nsamples = 2\nvalue = [2, 0]"] ;
507 -> 508 ;
509 [label="gini = 0.0\nsamples = 2\nvalue = [0, 2]"] ;
507 -> 509 ;
510 [label="gini = 0.0\nsamples = 13\nvalue = [13, 0]"] ;
506 -> 510 ;
511 [label="gini = 0.0\nsamples = 1\nvalue = [0, 1]"] ;
505 -> 511 ;
512 [label="duration <= 1004.0\ngini = 0.455\nsamples = 40\nvalue = [14, 26]"] ;
502 -> 512 ;
513 [label="gini = 0.0\nsamples = 7\nvalue = [0, 7]"] ;
512 -> 513 ;
514 [label="balance <= 822.5\ngini = 0.489\nsamples = 33\nvalue = [14, 19]"] ;
512 -> 514 ;
515 [label="day <= 16.5\ngini = 0.375\nsamples = 20\nvalue = [5, 15]"] ;
514 -> 515 ;
516 [label="duration <= 1541.5\ngini = 0.473\nsamples = 13\nvalue = [5, 8]"] ;
515 -> 516 ;
517 [label="duration <= 1203.0\ngini = 0.5\nsamples = 10\nvalue = [5, 5]"] ;
516 -> 517 ;
518 [label="balance <= 578.5\ngini = 0.408\nsamples = 7\nvalue = [2, 5]"] ;
517 -> 518 ;
519 [label="gini = 0.0\nsamples = 5\nvalue = [0, 5]"] ;
518 -> 519 ;
520 [label="gini = 0.0\nsamples = 2\nvalue = [2, 0]"] ;
518 -> 520 ;
521 [label="gini = 0.0\nsamples = 3\nvalue = [3, 0]"] ;
517 -> 521 ;
522 [label="gini = 0.0\nsamples = 3\nvalue = [0, 3]"] ;
516 -> 522 ;
523 [label="gini = 0.0\nsamples = 7\nvalue = [0, 7]"] ;
515 -> 523 ;
524 [label="age <= 47.0\ngini = 0.426\nsamples = 13\nvalue = [9, 4]"] ;
514 -> 524 ;
525 [label="gini = 0.0\nsamples = 7\nvalue = [7, 0]"] ;
524 -> 525 ;
526 [label="duration <= 1113.5\ngini = 0.444\nsamples = 6\nvalue = [2, 4]"] ;
524 -> 526 ;
527 [label="gini = 0.0\nsamples = 3\nvalue = [0, 3]"] ;
526 -> 527 ;
528 [label="education_secondary <= 0.5\ngini = 0.444\nsamples = 3\nvalue = [2, 1]"] ;
526 -> 528 ;
529 [label="gini = 0.0\nsamples = 1\nvalue = [0, 1]"] ;
528 -> 529 ;
530 [label="gini = 0.0\nsamples = 2\nvalue = [2, 0]"] ;
528 -> 530 ;
531 [label="duration <= 788.0\ngini = 0.346\nsamples = 27\nvalue = [21, 6]"] ;
501 -> 531 ;
532 [label="day <= 20.0\ngini = 0.375\nsamples = 4\nvalue = [1, 3]"] ;
531 -> 532 ;
533 [label="gini = 0.0\nsamples = 3\nvalue = [0, 3]"] ;
532 -> 533 ;
534 [label="gini = 0.0\nsamples = 1\nvalue = [1, 0]"] ;
532 -> 534 ;
535 [label="age <= 55.5\ngini = 0.227\nsamples = 23\nvalue = [20, 3]"] ;
531 -> 535 ;
536 [label="duration <= 1717.0\ngini = 0.165\nsamples = 22\nvalue = [20, 2]"] ;
535 -> 536 ;
537 [label="campaign <= 3.0\ngini = 0.091\nsamples = 21\nvalue = [20, 1]"] ;
536 -> 537 ;
538 [label="gini = 0.0\nsamples = 18\nvalue = [18, 0]"] ;
537 -> 538 ;
539 [label="marital_single <= 0.5\ngini = 0.444\nsamples = 3\nvalue = [2, 1]"] ;
537 -> 539 ;
540 [label="gini = 0.0\nsamples = 2\nvalue = [2, 0]"] ;
539 -> 540 ;
541 [label="gini = 0.0\nsamples = 1\nvalue = [0, 1]"] ;
539 -> 541 ;
542 [label="gini = 0.0\nsamples = 1\nvalue = [0, 1]"] ;
536 -> 542 ;
543 [label="gini = 0.0\nsamples = 1\nvalue = [0, 1]"] ;
535 -> 543 ;
544 [label="job_blue-collar <= 0.5\ngini = 0.18\nsamples = 10\nvalue = [1, 9]"] ;
500 -> 544 ;
545 [label="gini = 0.0\nsamples = 9\nvalue = [0, 9]"] ;
544 -> 545 ;
546 [label="gini = 0.0\nsamples = 1\nvalue = [1, 0]"] ;
544 -> 546 ;
547 [label="marital_single <= 0.5\ngini = 0.408\nsamples = 35\nvalue = [10, 25]"] ;
499 -> 547 ;
548 [label="campaign <= 3.5\ngini = 0.495\nsamples = 20\nvalue = [9, 11]"] ;
547 -> 548 ;
549 [label="day <= 7.0\ngini = 0.492\nsamples = 16\nvalue = [9, 7]"] ;
548 -> 549 ;
550 [label="gini = 0.0\nsamples = 2\nvalue = [0, 2]"] ;
549 -> 550 ;
551 [label="balance <= 1630.0\ngini = 0.459\nsamples = 14\nvalue = [9, 5]"] ;
549 -> 551 ;
552 [label="balance <= 1136.0\ngini = 0.496\nsamples = 11\nvalue = [6, 5]"] ;
551 -> 552 ;
553 [label="balance <= 343.0\ngini = 0.444\nsamples = 9\nvalue = [6, 3]"] ;
552 -> 553 ;
554 [label="balance <= 78.0\ngini = 0.48\nsamples = 5\nvalue = [2, 3]"] ;
553 -> 554 ;
555 [label="housing_yes <= 0.5\ngini = 0.444\nsamples = 3\nvalue = [2, 1]"] ;
554 -> 555 ;
556 [label="gini = 0.0\nsamples = 1\nvalue = [0, 1]"] ;
555 -> 556 ;
557 [label="gini = 0.0\nsamples = 2\nvalue = [2, 0]"] ;
555 -> 557 ;
558 [label="gini = 0.0\nsamples = 2\nvalue = [0, 2]"] ;
554 -> 558 ;
559 [label="gini = 0.0\nsamples = 4\nvalue = [4, 0]"] ;
553 -> 559 ;
560 [label="gini = 0.0\nsamples = 2\nvalue = [0, 2]"] ;
552 -> 560 ;
561 [label="gini = 0.0\nsamples = 3\nvalue = [3, 0]"] ;
551 -> 561 ;
562 [label="gini = 0.0\nsamples = 4\nvalue = [0, 4]"] ;
548 -> 562 ;
563 [label="day <= 10.5\ngini = 0.124\nsamples = 15\nvalue = [1, 14]"] ;
547 -> 563 ;
564 [label="gini = 0.0\nsamples = 1\nvalue = [1, 0]"] ;
563 -> 564 ;
565 [label="gini = 0.0\nsamples = 14\nvalue = [0, 14]"] ;
563 -> 565 ;
566 [label="poutcome_failure <= 0.5\ngini = 0.198\nsamples = 18\nvalue = [2, 16]"] ;
498 -> 566 ;
567 [label="duration <= 804.0\ngini = 0.111\nsamples = 17\nvalue = [1, 16]"] ;
566 -> 567 ;
568 [label="pdays <= 92.0\ngini = 0.5\nsamples = 2\nvalue = [1, 1]"] ;
567 -> 568 ;
569 [label="gini = 0.0\nsamples = 1\nvalue = [1, 0]"] ;
568 -> 569 ;
570 [label="gini = 0.0\nsamples = 1\nvalue = [0, 1]"] ;
568 -> 570 ;
571 [label="gini = 0.0\nsamples = 15\nvalue = [0, 15]"] ;
567 -> 571 ;
572 [label="gini = 0.0\nsamples = 1\nvalue = [1, 0]"] ;
566 -> 572 ;
}